subject_id,emb_0,emb_1,emb_2,emb_3,emb_4,emb_5,emb_6,emb_7,emb_8,emb_9,emb_10,emb_11,emb_12,emb_13,emb_14,emb_15,dominant_family
synth000,0.2644212245941162,-0.2760877013206482,-0.029633518308401108,-0.07022631913423538,-0.009842432104051113,-0.022812338545918465,0.020945662632584572,0.023989571258425713,-1.4699580669403076,0.11460057646036148,-0.002689907094463706,0.0723927840590477,-0.06553062796592712,0.09153735637664795,-0.04467238858342171,0.04095732420682907,QLearning
synth001,-0.22664347290992737,0.1971106380224228,-0.07867255806922913,0.09238866716623306,-0.0887550413608551,-0.01686936803162098,0.6767623424530029,-0.25828802585601807,0.8858922719955444,0.04945230856537819,0.010571091435849667,0.028358258306980133,0.03269140422344208,0.08907622843980789,-0.04879506677389145,0.003347364952787757,CompareToThreshold
synth002,-0.02160792239010334,-0.5659173727035522,-0.003902902826666832,0.08381214737892151,-0.004016743041574955,0.017399083822965622,-0.6725817322731018,-0.03945981711149216,1.3935035467147827,-0.002098839497193694,0.0692375972867012,-0.1330469399690628,0.13538910448551178,0.054237689822912216,0.015385791659355164,-0.03978985175490379,LossCounting
synth003,-0.0654802918434143,-0.2481347620487213,-0.11064998060464859,0.04322395101189613,-0.15137925744056702,0.05894649401307106,-0.7439041137695312,-0.037632059305906296,-0.5322921872138977,0.05058722570538521,-0.09134303778409958,0.12619522213935852,-0.04586914926767349,0.14247038960456848,-0.16272978484630585,0.06265400350093842,QLearning
synth004,-0.03681758791208267,1.0653470754623413,0.018567919731140137,0.04140126332640648,0.010856565088033676,-0.044560011476278305,1.1613795757293701,-0.03821184113621712,0.3840361535549164,0.19553518295288086,-0.006736134644597769,-0.0490482822060585,0.008326541632413864,-0.13076439499855042,0.010531089268624783,-0.01848665066063404,CompareToThreshold
synth005,0.09594849497079849,1.8475890159606934,-0.0737479105591774,0.025596104562282562,0.17062918841838837,-0.11741925030946732,-0.6537837386131287,0.020655689761042595,-0.6240027546882629,0.01224595494568348,-0.000853697769343853,0.04581131413578987,0.09594929963350296,-0.05629846453666687,-0.04846445843577385,0.03256569802761078,LossCounting
synth006,0.22147463262081146,-0.3681259751319885,-0.1351713091135025,0.10678358376026154,-0.07877752184867859,-0.020894711837172508,0.30865004658699036,0.010817437432706356,-1.1923067569732666,0.012903858907520771,-0.1250447928905487,0.0901123657822609,-0.032912302762269974,0.02244897559285164,0.0320771150290966,0.13878685235977173,QLearning
synth007,-0.10423877835273743,0.12123244255781174,0.22750501334667206,-0.10776342451572418,-0.06283863633871078,-0.05987399443984032,1.4884141683578491,-0.0471021831035614,1.0503777265548706,-0.0361177884042263,0.05410067364573479,-0.06958705186843872,0.08333540707826614,0.052008841186761856,-0.15690650045871735,-0.07275143265724182,CompareToThreshold
synth008,-0.007098027970641851,-0.02630712278187275,0.028749065473675728,-0.09466050565242767,-0.019212722778320312,0.14544670283794403,-0.5664405226707458,-0.08872716128826141,1.0678414106369019,-0.027507100254297256,-0.05071726813912392,-0.0019565981347113848,-0.03262441232800484,-0.021746046841144562,-0.12443197518587112,0.04147147387266159,LossCounting
synth009,-0.037777166813611984,-0.36924031376838684,-0.022856121882796288,0.014505787752568722,0.049481358379125595,-0.04956020042300224,-1.1282979249954224,0.017797181382775307,0.012395517900586128,0.0641799122095108,-0.02245446667075157,-0.03752234950661659,-0.0543997660279274,-0.054533619433641434,-0.017858728766441345,0.005996535066515207,QLearning
synth010,-0.10470940917730331,-0.07728639245033264,-0.19369013607501984,0.04209088906645775,-0.06836758553981781,0.10968682169914246,0.5199127793312073,-0.06521354615688324,0.47807833552360535,0.23242487013339996,-0.09826765954494476,0.03751847520470619,-0.01001330092549324,0.08673315495252609,-0.19097726047039032,-0.04856792464852333,CompareToThreshold
synth011,-0.08315397053956985,1.2200605869293213,-0.14836061000823975,-0.1372496336698532,0.021998105570673943,0.010785453952848911,-0.06529270857572556,-0.15906020998954773,-0.6641439199447632,0.11263241618871689,-0.03481012582778931,0.15648847818374634,-0.05977850779891014,-0.04177336394786835,-0.08238562941551208,0.01556791178882122,LossCounting
synth012,0.034605734050273895,-0.24078969657421112,0.08206487447023392,-0.07588351517915726,-0.013189252465963364,-0.01372640673071146,0.0006901139859110117,-0.016909901052713394,-1.1872676610946655,0.01367980521172285,-0.14869573712348938,0.18409036099910736,0.07830702513456345,0.019634779542684555,-0.059043921530246735,-0.0833733081817627,QLearning
synth013,0.10169976949691772,-0.7093496918678284,0.047581061720848083,-0.13828332722187042,0.09384455531835556,-0.21063503623008728,1.8128349781036377,0.11525499075651169,1.7111670970916748,0.08820266276597977,0.19577951729297638,-0.14867040514945984,0.08575283735990524,-0.08469484001398087,0.0374593548476696,-0.020543770864605904,CompareToThreshold
synth014,-0.009115749038755894,1.957586407661438,-0.03300270065665245,0.05319727584719658,0.06702619045972824,-0.10095106810331345,-0.5285817980766296,-0.12073999643325806,-0.7124952077865601,0.021948857232928276,-0.026167554780840874,-0.1288275569677353,-0.05194496735930443,0.01432090438902378,-0.00649401405826211,-0.08725976198911667,LossCounting
synth015,-0.11018644273281097,-0.4080352187156677,-0.1149064153432846,0.07386072725057602,0.013117684982717037,0.006471604108810425,-0.42233577370643616,0.04201681166887283,-0.6204018592834473,-0.0182739719748497,-0.07683275640010834,0.12282805889844894,0.08216124773025513,-0.007442732807248831,-0.03169935569167137,0.1763867437839508,QLearning
synth016,0.034438811242580414,-0.024935021996498108,-0.05130854249000549,-0.06593558937311172,-0.0034647139254957438,-0.12407872080802917,0.8658227920532227,0.005879645235836506,-0.3027273714542389,-0.17865592241287231,-0.006217680871486664,0.004570556338876486,-0.06345853209495544,0.10817546397447586,0.1109706237912178,0.04311094060540199,CompareToThreshold
synth017,-0.14683683216571808,1.7137501239776611,-0.10631389170885086,0.04816506430506706,0.022601595148444176,0.06601931899785995,-0.5112941265106201,0.004006444476544857,-0.5353819131851196,0.10390466451644897,-0.009460566565394402,-0.0763808861374855,0.06784207373857498,-0.07129650563001633,-0.118305504322052,0.040699560195207596,LossCounting
synth018,0.1702902466058731,-1.3183921575546265,0.15961436927318573,-0.014410044997930527,0.203114852309227,0.05667339265346527,0.02529337629675865,0.08003085851669312,-1.1013891696929932,0.07820743322372437,0.07260539382696152,0.03159729018807411,-0.013734623789787292,-0.05453101918101311,0.16560021042823792,-0.05550392344594002,QLearning
synth019,-0.2132500559091568,0.06886345148086548,0.043302904814481735,0.13583824038505554,-0.09831156581640244,-0.1158129945397377,0.505320131778717,-0.2696922719478607,0.8005859851837158,0.1821243315935135,-0.057516731321811676,-0.0024716523475944996,-0.08643867820501328,0.03486185148358345,-0.033144768327474594,-0.009250537492334843,CompareToThreshold
synth020,0.1457916647195816,1.5956919193267822,0.0871080681681633,-0.10884393006563187,0.06365131586790085,-0.12906847894191742,-0.30455997586250305,-0.017742833122611046,-0.4974100589752197,-0.10349392145872116,0.06637213379144669,0.08425312489271164,-0.06399573385715485,0.007454941980540752,-0.08840327709913254,-0.0031021437607705593,LossCounting
synth021,-0.05820958688855171,-0.642597496509552,-0.1947278380393982,0.145437553524971,-0.1975470930337906,-0.011922038160264492,-0.713286817073822,0.0976443961262703,-0.34760376811027527,0.009274490177631378,-0.07723665237426758,0.19888000190258026,-0.0532299168407917,0.14878089725971222,-0.059344153851270676,0.08834043145179749,QLearning
synth022,0.008420547470450401,-0.9202999472618103,0.012284780852496624,0.05104673653841019,0.039537493139505386,0.11104229837656021,0.7808827757835388,0.03006213903427124,-0.4383613169193268,-0.1453164964914322,0.17958226799964905,0.07396924495697021,0.18037191033363342,0.018016329035162926,0.039990536868572235,-0.04470245912671089,CompareToThreshold
synth023,0.059078287333250046,1.9446377754211426,-0.0747547373175621,0.04094257950782776,0.12822329998016357,-0.04854574799537659,-0.28839045763015747,-0.15919089317321777,-1.0416773557662964,0.07204429060220718,-0.033681441098451614,0.12664198875427246,0.05866644158959389,-0.0038805638905614614,-0.005185790825635195,0.09500068426132202,LossCounting
synth024,-0.03534485399723053,-0.6420732736587524,-0.05012932047247887,0.0607805959880352,0.07066367566585541,-0.011565043590962887,-0.908329427242279,-0.11756420135498047,-0.11107606440782547,0.0364086851477623,0.020025651901960373,0.018371617421507835,0.015231967903673649,0.06995365023612976,-0.05971360579133034,-0.03058556839823723,QLearning
synth025,0.1753046065568924,1.1509836912155151,-0.13024689257144928,-0.16542847454547882,-0.12709355354309082,-0.04563574492931366,0.7183453440666199,-0.1145189106464386,0.6398365497589111,-0.13219885528087616,-0.16745011508464813,0.10902775824069977,-0.00489709572866559,0.05250099301338196,-0.031348492950201035,0.11592515558004379,CompareToThreshold
synth026,-0.008574066683650017,-0.4829833209514618,0.06387556344270706,-0.012498853728175163,0.01684853434562683,-0.1005035862326622,-0.5153562426567078,-0.05364110693335533,1.4847242832183838,-0.014561020769178867,0.0617656372487545,0.018683452159166336,0.008370548486709595,0.09111309051513672,0.033352501690387726,-0.1280716359615326,LossCounting
synth027,0.06734474748373032,-0.13411113619804382,-0.19722290337085724,0.040766868740320206,-0.06547045707702637,-0.13309259712696075,-0.24260416626930237,-0.2318558692932129,-1.3038803339004517,0.14885224401950836,-0.2049212008714676,0.22067104279994965,0.04100751131772995,-0.011340158991515636,-0.0678911805152893,-0.0052763898856937885,QLearning
synth028,0.03895167261362076,0.5231104493141174,-0.08618705719709396,0.22341154515743256,-0.09849519282579422,0.16473093628883362,0.5806751847267151,-0.1240248829126358,0.7370625138282776,0.051697343587875366,-0.15409162640571594,0.06283553689718246,-0.008751530200242996,0.08804920315742493,-0.043289829045534134,0.017869960516691208,CompareToThreshold
synth029,-0.13596726953983307,0.9380555748939514,-0.02194981463253498,-0.0226497370749712,0.03746866062283516,0.015569350682199001,-0.4269154667854309,-0.13653120398521423,0.18402141332626343,0.03810742124915123,0.03184809163212776,0.03675331920385361,0.07730992138385773,-0.0516323484480381,0.02054922841489315,0.10252176970243454,LossCounting
synth030,-0.03725230693817139,-0.7362065315246582,-0.04688671976327896,0.11224369704723358,0.021049462258815765,0.007582521997392178,-0.8174777030944824,-0.0026324556674808264,-0.2299574613571167,-0.09957270324230194,-0.030106255784630775,0.06480169296264648,-0.056459154933691025,0.0715460553765297,0.024227183312177658,0.021549513563513756,QLearning
synth031,0.12025684118270874,-0.5218901038169861,-0.10597885400056839,-0.0060577099211514,0.10897615551948547,0.09746849536895752,0.5465518236160278,0.10421562194824219,-1.052438497543335,-0.1310848742723465,0.16513308882713318,0.07520291209220886,0.10276461392641068,-0.04258645325899124,0.001045280252583325,-0.15388058125972748,CompareToThreshold
synth032,-0.07460719347000122,0.015891708433628082,-0.04218793287873268,-0.002752873580902815,0.159136101603508,-0.03715594485402107,-0.4753287732601166,-0.060369063168764114,1.107123613357544,-0.0461239367723465,0.05279356613755226,0.01760820858180523,0.050014473497867584,-0.04552629962563515,0.0170314721763134,-0.046200767159461975,LossCounting
synth033,0.05640469864010811,-0.577200710773468,0.026523130014538765,-0.039232462644577026,-0.019877448678016663,-0.01840413361787796,-0.5904625654220581,0.06901911646127701,-0.38046497106552124,-0.13729055225849152,-0.07654504477977753,0.11296520382165909,0.035565800964832306,0.051137782633304596,-0.09513705968856812,-0.15145757794380188,QLearning
synth034,0.002782557625323534,0.8702854514122009,0.07522635906934738,0.06046992912888527,0.007288523018360138,-0.04661116749048233,1.171189546585083,-0.12937231361865997,0.3530412018299103,0.015659937635064125,0.016106579452753067,-0.019687123596668243,0.06092929095029831,-0.0002314204757567495,0.04243095591664314,-0.0428723469376564,CompareToThreshold
synth035,0.028905091807246208,1.8078845739364624,-0.03177238628268242,0.01606958732008934,0.13203570246696472,-0.02053450234234333,-0.6695587635040283,-0.008628053590655327,-0.6467742919921875,0.17018462717533112,0.011826269328594208,-0.03485053777694702,0.09999281167984009,-0.04984946921467781,-0.13937348127365112,0.0034326505847275257,LossCounting
synth036,-0.0803031399846077,-1.260857105255127,0.09909090399742126,0.016041334718465805,-0.14448872208595276,0.12188249081373215,-0.0335945226252079,0.17644822597503662,-0.6125515103340149,0.07727224379777908,0.06411202996969223,0.04397484287619591,0.02761480212211609,-0.020128285512328148,0.09297101944684982,-0.17210233211517334,QLearning
synth037,-0.00913841649889946,0.8208088874816895,-0.02614578604698181,0.01700972393155098,0.16030772030353546,0.1408189833164215,0.8643926382064819,-0.17387685179710388,0.6291289925575256,-0.08350437879562378,0.10441198199987411,-0.009278510697185993,0.1780565083026886,-0.06856504827737808,0.11480996012687683,0.054953936487436295,CompareToThreshold
synth038,-0.03421842306852341,-0.766671359539032,0.13455358147621155,0.011530227027833462,0.18548189103603363,-0.12381894886493683,-0.38438880443573,-0.009641552343964577,1.7669652700424194,-0.018246658146381378,0.14543840289115906,-0.032659925520420074,-0.1035589873790741,0.07248339802026749,0.15053690969944,-0.11847731471061707,LossCounting
synth039,0.11419513076543808,-1.1669025421142578,0.11818882822990417,0.05611525848507881,0.12414142489433289,0.06014223396778107,0.3229885399341583,0.25178712606430054,-0.926180899143219,-0.02650458738207817,0.14161589741706848,0.09163477271795273,0.08710090070962906,0.0015287272399291396,0.16432766616344452,-0.10309545695781708,QLearning
synth040,0.0835813656449318,0.5371782779693604,0.05256862938404083,0.2363509237766266,0.10776423662900925,0.003211564850062132,0.9249633550643921,0.10533399134874344,-0.0008912106277421117,0.05283709987998009,-0.09741660207509995,0.01599140092730522,-0.1872926950454712,0.15657347440719604,-0.06559145450592041,0.10386119782924652,CompareToThreshold
synth041,0.005161164328455925,1.884706735610962,-0.059785936027765274,0.025184564292430878,0.08882983773946762,-0.020407430827617645,-0.6322569847106934,-0.023832101374864578,-0.6389011740684509,0.052655111998319626,-0.009312743321061134,-0.03124055080115795,0.04586509242653847,-0.038301948457956314,-0.1159190833568573,0.041837915778160095,LossCounting
synth042,0.2057657539844513,-0.034036774188280106,-0.047205835580825806,-0.12373387068510056,0.1763542890548706,-0.000970880500972271,0.10676849633455276,0.07227622717618942,-1.6919221878051758,-0.013081167824566364,-0.23426945507526398,-0.020766466856002808,-0.02322293631732464,-0.14180339872837067,-0.01936466060578823,0.13059879839420319,QLearning
synth043,-0.05973229557275772,0.37278854846954346,0.07872878760099411,-0.0643150806427002,0.0955001562833786,-0.057804178446531296,1.612754464149475,-0.024223627522587776,1.5246214866638184,0.09615622460842133,-0.1364574134349823,-0.02855265885591507,0.19149290025234222,-0.07210460305213928,-0.3091525733470917,-0.12694483995437622,CompareToThreshold
synth044,-0.08228099346160889,-0.37100493907928467,0.06553040444850922,0.023253416642546654,0.20139604806900024,-0.19179242849349976,-0.5058439373970032,-0.009715952910482883,1.4133943319320679,0.015381881967186928,0.10391052812337875,0.06401632726192474,-0.040795277804136276,0.1452452540397644,0.09001748263835907,-0.10538274794816971,LossCounting
synth045,0.22354699671268463,-0.5645115375518799,-0.11760462075471878,0.06937950104475021,-0.14059126377105713,-0.06928527355194092,0.2037699818611145,-0.013479446992278099,-1.0046875476837158,0.054643843322992325,-0.13181594014167786,0.17122004926204681,0.08983103930950165,0.048359353095293045,0.027210310101509094,0.21795544028282166,QLearning
synth046,-0.0013280326966196299,0.6373988389968872,-0.11513560265302658,0.23791153728961945,0.14637231826782227,0.07517305016517639,0.7883567214012146,-0.04449412226676941,-0.3073146343231201,-0.062299326062202454,-0.06278766691684723,-0.13641518354415894,0.40887120366096497,0.034242380410432816,-0.023775799199938774,-0.003512804862111807,CompareToThreshold
synth047,-0.09034785628318787,1.9672267436981201,0.053646061569452286,0.07740800827741623,0.1912849396467209,-0.03285839781165123,-0.4099537432193756,-0.11752679198980331,-1.0841460227966309,0.06757355481386185,0.005672474857419729,-0.04229017347097397,0.15263834595680237,-0.08482269197702408,-0.03225508704781532,0.029301024973392487,LossCounting
synth048,-0.03935126215219498,-0.1428927183151245,0.0577797070145607,-0.055953193455934525,-0.055083420127630234,-0.08885987102985382,-0.851708710193634,-0.008287684060633183,-0.4386289715766907,-0.08151976019144058,-0.08105812966823578,0.052627284079790115,0.10980495065450668,0.1354283094406128,-0.12465205043554306,0.028293082490563393,QLearning
synth049,0.06156885251402855,1.0611138343811035,0.06421991437673569,0.05820690840482712,0.0417829193174839,0.06353803724050522,1.1015715599060059,0.041383322328329086,0.44957053661346436,0.0837860032916069,0.10421314090490341,-0.046529777348041534,0.06606895476579666,-0.04868202656507492,0.048810672014951706,-0.12165505439043045,CompareToThreshold
synth050,-0.06367731839418411,-0.14837883412837982,0.098598413169384,-0.12443850189447403,0.14735114574432373,0.2528565227985382,0.07597417384386063,0.3032149374485016,-0.868329644203186,-0.22632867097854614,0.10536733269691467,0.08018837124109268,0.1222517192363739,-0.04767720773816109,0.21444523334503174,0.07028459757566452,LossCounting
synth051,-0.003901017364114523,-0.2505395710468292,-0.011932768858969212,0.149600088596344,-0.03021129034459591,0.017135314643383026,-0.38079842925071716,0.05372316390275955,-0.6806086897850037,0.07012995332479477,-0.0839509516954422,0.19321724772453308,0.14800076186656952,0.0400899313390255,-0.02536926232278347,-0.013576289638876915,QLearning
synth052,-0.19744208455085754,0.15980948507785797,-0.16138583421707153,0.07330053299665451,-0.11003231257200241,0.07126130163669586,0.432388573884964,0.049805253744125366,-0.8993299007415771,-0.044481340795755386,-0.08008371293544769,0.0011457575019448996,0.21764440834522247,-0.04583770036697388,-0.21949662268161774,-0.059204839169979095,CompareToThreshold
synth053,0.07341308891773224,-0.27986934781074524,-0.015655169263482094,-0.01185192447155714,-0.025434233248233795,0.009511291049420834,-0.5752880573272705,-0.03410244733095169,1.286091685295105,0.0472697876393795,0.04459601640701294,0.1209692656993866,-0.0028888629749417305,0.11122927814722061,-0.007138834800571203,-0.00039232027484104037,LossCounting
synth054,-0.09799452126026154,-1.722390055656433,-0.06576024740934372,-0.0775742381811142,0.25530603528022766,0.012770022265613079,0.3002281188964844,-0.12799839675426483,-1.0306473970413208,0.027233004570007324,0.19429704546928406,-0.045341938734054565,-0.06386519223451614,-0.004844299051910639,0.0253829974681139,0.03198646008968353,QLearning
synth055,-0.2429492175579071,0.4512196481227875,0.11123761534690857,0.17251060903072357,-0.108441062271595,0.036393873393535614,1.262635350227356,-0.058892637491226196,0.2853483557701111,-0.08505096286535263,-0.004349308088421822,-0.09424756467342377,0.010794182308018208,0.06773409992456436,0.0005169910145923495,-0.08179966360330582,CompareToThreshold
synth056,0.05191446468234062,1.9238712787628174,0.045642491430044174,0.03255995362997055,0.1510917991399765,0.0018956545973196626,-0.3736284673213959,-0.11614072322845459,-1.0220261812210083,0.0109750647097826,-0.02131885103881359,0.1006188839673996,0.08014004677534103,0.054983414709568024,-0.10209465026855469,-0.01458432711660862,LossCounting
synth057,0.07481712102890015,-0.99273681640625,-0.08088106662034988,0.057600025087594986,-0.14871695637702942,0.11527124792337418,-0.6276220083236694,0.14085741341114044,-0.354535847902298,0.01971590705215931,-0.21301211416721344,0.011635852046310902,0.030906405299901962,0.05446941778063774,-0.012241664342582226,-0.1326344907283783,QLearning
synth058,0.14995697140693665,-0.1322232484817505,0.13679979741573334,0.2219640016555786,-0.1368032544851303,0.10147479921579361,0.8531990647315979,-0.05034548044204712,-0.6425352096557617,-0.020599210634827614,-0.09266185760498047,0.03494155779480934,0.3873838782310486,0.02960384637117386,-0.15090475976467133,0.009363415651023388,CompareToThreshold
synth059,-0.05377187579870224,-0.49596044421195984,0.12583312392234802,-0.028952309861779213,-0.08138462156057358,-0.0010867012897506356,-0.4491577446460724,-0.04199622571468353,1.5173548460006714,-0.0363856703042984,-0.016619641333818436,-0.11285591125488281,-0.009151503443717957,0.0018375884974375367,-0.005868365056812763,-0.05756356567144394,LossCounting
synth060,-0.015096244402229786,-0.49618351459503174,0.03560143709182739,0.03383200615644455,0.026487872004508972,-0.021481048315763474,-0.9128373861312866,-0.0943717285990715,-0.16938167810440063,0.1282888948917389,-0.018123548477888107,-0.08465790003538132,0.03502391278743744,0.009328563697636127,-0.152199387550354,0.09230009466409683,QLearning
synth061,-0.11502588540315628,-0.03960546851158142,0.1637311726808548,-0.009330068714916706,-0.051153045147657394,0.0619596391916275,0.8856364488601685,0.0876026302576065,-0.26023152470588684,-0.27915680408477783,0.10578656196594238,-0.033082492649555206,0.24038150906562805,0.1364554613828659,-0.14004874229431152,-0.14661309123039246,CompareToThreshold
synth062,-0.04651080071926117,2.040980339050293,-0.10108239948749542,0.012103047221899033,0.09486827254295349,-0.08159995824098587,-0.6567589044570923,-0.021839959546923637,-0.7990880608558655,-0.009737484157085419,-0.0036046153400093317,-0.07968562096357346,0.0980338603258133,-0.05033285170793533,-0.111643485724926,0.05547802150249481,LossCounting
synth063,-0.06128580495715141,-1.0082522630691528,-0.1015024334192276,0.07220998406410217,-0.022063035517930984,-0.03638555482029915,-0.7080270051956177,0.11746961623430252,-0.2918950617313385,0.14741206169128418,-0.13722051680088043,-0.00047076138434931636,-0.012761690653860569,0.008565414696931839,-0.033528901636600494,-0.04550889506936073,QLearning
synth064,-0.050482653081417084,0.35195955634117126,0.15045970678329468,-0.043447237461805344,0.012856326065957546,0.014172964729368687,0.3688490390777588,0.037071723490953445,-0.6481770277023315,-0.17493809759616852,0.04233293607831001,-0.05719755217432976,0.2649412155151367,-0.1282624751329422,-0.035568974912166595,0.09606961905956268,CompareToThreshold
synth065,-0.16515018045902252,1.7733745574951172,-0.08380592614412308,0.07179701328277588,0.048907097429037094,0.047750074416399,-0.5769498348236084,-0.007896334864199162,-0.5642383694648743,0.17193543910980225,-0.0057087792083621025,-0.17357701063156128,0.045005086809396744,-0.10080515593290329,-0.13068385422229767,-0.05444119870662689,LossCounting
synth066,-0.020993787795305252,-0.27017733454704285,0.2216031700372696,-0.01149191614240408,0.07925846427679062,-0.13952435553073883,-0.23744134604930878,0.014879305846989155,-1.2920327186584473,0.03140498325228691,0.004988749977201223,0.00643922621384263,0.002534072380512953,-0.1108224168419838,-0.06467875838279724,-0.007629587780684233,QLearning
synth067,-0.02427964098751545,0.9798099994659424,0.051995955407619476,0.005301830358803272,0.032235052436590195,0.1278465837240219,1.0771324634552002,-0.0940995141863823,0.46912074089050293,0.038977254182100296,-0.0029980360995978117,0.050591446459293365,0.023069219663739204,-0.10730540752410889,-0.006514435168355703,-0.09439805150032043,CompareToThreshold
synth068,-0.06860226392745972,1.083107352256775,-0.068367138504982,0.030966104939579964,0.030951833352446556,0.1339508295059204,-0.5159112811088562,-0.13173648715019226,0.06131324917078018,0.08980453759431839,-0.006898588500916958,0.19396242499351501,0.03173314407467842,-0.037657443434000015,-0.0697711780667305,-0.02641904540359974,LossCounting
synth069,-0.07189705222845078,-0.17386238276958466,0.17832015454769135,0.09873143583536148,0.06710057705640793,0.1046551764011383,0.04492233321070671,0.04521024227142334,-0.13176611065864563,0.058133430778980255,0.004816508386284113,0.07071121037006378,0.23910894989967346,0.17679853737354279,-0.11714334785938263,0.03626590222120285,QLearning
synth070,-0.1853036731481552,-0.013210533186793327,-0.28127214312553406,0.16223441064357758,-0.06772521138191223,0.04151838645339012,1.1126147508621216,-0.004952676128596067,0.39750224351882935,0.0841485783457756,-0.0548689179122448,0.11199179291725159,0.08421146124601364,0.13455790281295776,-0.028340082615613937,-0.2954460680484772,CompareToThreshold
synth071,-0.061777230352163315,-0.980883777141571,-0.168777734041214,0.08279342204332352,0.06432358920574188,-0.12593239545822144,-0.25727343559265137,-0.007024789694696665,1.8601224422454834,-0.052884235978126526,0.0004230804042890668,-0.037200309336185455,-0.02961091697216034,0.01751740090548992,-0.07103085517883301,-0.02116626873612404,LossCounting
synth072,-0.001888202503323555,-1.2080621719360352,-0.1677505373954773,-0.030592434108257294,0.08639620989561081,0.0992218554019928,-0.5339354276657104,0.05013289675116539,-0.6429089307785034,0.0869257003068924,0.06535730510950089,-0.05006350576877594,0.02158709056675434,-0.05418965220451355,0.012337406165897846,-0.15063126385211945,QLearning
synth073,-0.0978701189160347,-0.19671860337257385,-0.014690709300339222,0.012871474027633667,0.0015497085405513644,0.05662864074110985,0.6732009053230286,-0.20879819989204407,0.8185622692108154,0.1171891912817955,-0.011256011202931404,-0.025630220770835876,-0.013995549641549587,0.0772479921579361,-0.06398585438728333,0.1555381417274475,CompareToThreshold
synth074,-0.008416714146733284,-0.4684351086616516,-0.03016570955514908,0.08523274958133698,0.21159909665584564,-0.1443834900856018,-0.45864441990852356,0.0014437828212976456,1.4736748933792114,-0.008427157998085022,-0.032507941126823425,0.0035996008664369583,0.07123257219791412,0.06542129814624786,0.08044284582138062,-0.16059443354606628,LossCounting
synth075,0.06784771382808685,-0.359994500875473,-0.07310368865728378,0.009323847480118275,-0.261568546295166,-0.10088162124156952,-0.49455752968788147,-0.04755706712603569,-0.7784143686294556,0.01602398417890072,-0.1570385992527008,0.15963152050971985,0.06314559280872345,0.06385622173547745,-0.08198291808366776,0.1393122673034668,QLearning
synth076,-0.27719569206237793,0.42958688735961914,-0.18083377182483673,0.1428305208683014,-0.02382155880331993,-0.004271162673830986,0.5367609858512878,-0.3408604562282562,0.7487137317657471,0.12334912270307541,0.020392123609781265,0.11730027943849564,-0.08764570951461792,0.10761348903179169,-0.1359545886516571,0.035053204745054245,CompareToThreshold
synth077,-0.04889632761478424,0.4080016314983368,-0.07239266484975815,-0.038265079259872437,-0.017291327938437462,-0.018886838108301163,-0.6250676512718201,-0.10101662576198578,0.8346247673034668,0.027623070403933525,0.06107275187969208,0.13757525384426117,0.0412643663585186,0.07288574427366257,-0.03261585161089897,-0.04771633818745613,LossCounting
synth078,-0.08968984335660934,-0.543336033821106,-0.01850256510078907,0.06271947920322418,-0.18620163202285767,-0.037005577236413956,-0.7852437496185303,-0.042271509766578674,-0.3633095920085907,-0.009771844372153282,-0.10677926242351532,0.029397303238511086,0.02123718336224556,0.023328708484768867,-0.20543640851974487,0.012765544466674328,QLearning
synth079,-0.03789074346423149,-0.2092905193567276,-0.07219094783067703,0.17975181341171265,-0.09108863025903702,0.1483275592327118,1.3401800394058228,-0.032805513590574265,0.20743152499198914,-0.1446850597858429,-0.02257252298295498,0.005949461832642555,0.01029838528484106,0.09518027305603027,-0.018855886533856392,-0.09366701543331146,CompareToThreshold
synth080,0.04576858878135681,-0.5303356051445007,0.1050158366560936,-0.031509559601545334,-0.16333191096782684,0.09262364357709885,-0.431801438331604,-0.05539998412132263,1.546415090560913,0.01763829030096531,-0.03809420019388199,-0.015947405248880386,0.003894380060955882,0.020396266132593155,-0.00265266140922904,-0.05935361236333847,LossCounting
synth081,-0.03795323893427849,-1.3476135730743408,0.16239742934703827,0.006810786668211222,-0.14534665644168854,0.2245422601699829,-0.057999104261398315,-0.015975339338183403,-0.3087885081768036,-0.018993480131030083,0.09283100813627243,0.052940234541893005,-0.06993285566568375,0.011067564599215984,-0.01113676093518734,0.007127702701836824,QLearning
synth082,-0.3706376254558563,-0.2589346170425415,0.10713326185941696,-0.2847830355167389,0.030365267768502235,-0.19573351740837097,1.5647579431533813,0.2707948684692383,-0.9812356233596802,0.21502289175987244,0.1678897738456726,0.3657427728176117,-0.13913539052009583,-0.0896645188331604,0.3700505495071411,0.00687984935939312,CompareToThreshold
synth083,0.22042131423950195,-0.2605075240135193,0.10249292105436325,0.0579940564930439,0.2504289448261261,-0.09051989763975143,-0.3219723701477051,-0.08612257987260818,1.4080932140350342,0.07073194533586502,0.0022572260349988937,0.11648625880479813,0.16045276820659637,0.11483582109212875,-0.002861600834876299,-0.30893877148628235,LossCounting
synth084,-0.1167553961277008,-0.9853963255882263,-0.0692286565899849,0.04809393733739853,0.011542032472789288,0.034861721098423004,-0.493097186088562,0.12868839502334595,-0.4543730616569519,0.15416714549064636,-0.010440804064273834,0.07999660819768906,0.014010157436132431,0.00040339422412216663,-0.04581931605935097,-0.08889337629079819,QLearning
synth085,0.039255619049072266,-0.10590434074401855,-0.04504328593611717,-0.01662336476147175,0.05477464199066162,-0.12938658893108368,1.43416428565979,-0.07054086029529572,1.6794164180755615,0.03861603885889053,0.11933425068855286,-0.0451020784676075,0.017995256930589676,-0.06468752026557922,0.028662892058491707,0.09074848145246506,CompareToThreshold
synth086,0.08605006337165833,0.7898026704788208,-0.02679934911429882,0.033458709716796875,0.04923538863658905,0.08611095696687698,-0.5834893584251404,-0.03447309508919716,0.22430677711963654,0.08942178636789322,0.03347050026059151,-0.036607775837183,0.010898285545408726,-0.15239042043685913,-0.055393267422914505,0.1603214144706726,LossCounting
synth087,0.1458463817834854,-0.22373870015144348,-0.07147030532360077,0.05594704672694206,-0.11633515357971191,-0.061578188091516495,-0.8256745934486389,-0.04820118099451065,-0.4016073942184448,0.04204064607620239,-0.07085265964269638,0.10640687495470047,-0.01413448341190815,0.14033840596675873,-0.06305057555437088,0.12817853689193726,QLearning
synth088,0.034349605441093445,-0.4892633855342865,0.12985503673553467,-0.06328017264604568,0.05305462330579758,0.0036950334906578064,1.5329997539520264,0.1361933946609497,1.0848227739334106,0.045797593891620636,0.008979187346994877,-0.0829613134264946,0.11607330292463303,0.027712015435099602,-0.00024855026276782155,-0.0455116331577301,CompareToThreshold
synth089,-0.022532803937792778,-0.6198298931121826,-0.09805113822221756,-0.027450766414403915,0.029414499178528786,-0.034156765788793564,-0.7311462759971619,-0.1334613412618637,1.3352209329605103,-0.005475008860230446,-0.02058410458266735,-0.03775407373905182,-0.018276890739798546,-0.016450541093945503,-0.07231467962265015,0.040108222514390945,LossCounting
synth090,0.11843673884868622,-0.8778694272041321,0.10879730433225632,0.002845559734851122,-0.11442110687494278,0.10507934540510178,-0.5222083926200867,-0.07713388651609421,-0.41959241032600403,-0.05130128562450409,0.05352875217795372,-0.0281274002045393,0.06328532099723816,-0.026527581736445427,0.035379841923713684,0.09495533257722855,QLearning
synth091,0.07716797292232513,-0.6207948923110962,0.36872777342796326,0.06464259326457977,0.016912754625082016,0.13136114180088043,0.7101764678955078,0.04722702503204346,-0.9108309745788574,-0.04118748754262924,0.10489629209041595,0.04561558738350868,0.15365834534168243,0.10887910425662994,-0.006516521330922842,0.018083008006215096,CompareToThreshold
synth092,-0.014545259065926075,-0.06914877146482468,0.11444314569234848,-0.16770896315574646,0.020147094503045082,-0.24132299423217773,-0.4738514721393585,0.009273465722799301,1.1773858070373535,-0.03475770726799965,0.013602979481220245,0.0216374434530735,-0.08936715871095657,0.12209822982549667,0.07815292477607727,-0.10227194428443909,LossCounting
synth093,-0.05077407509088516,-1.0889267921447754,-0.03368024528026581,0.050067201256752014,-0.10608541965484619,0.06985469162464142,-0.5950620174407959,0.14684531092643738,-0.32646000385284424,0.02711881883442402,-0.1786934733390808,-0.02794617787003517,0.038992442190647125,0.04844418168067932,0.021153142675757408,-0.05890287831425667,QLearning
synth094,0.09272120147943497,-0.6412248015403748,0.314292311668396,-0.03567994758486748,0.13712798058986664,0.10882506519556046,0.6837830543518066,-0.13319750130176544,-0.96797776222229,0.02760322578251362,0.2139720767736435,0.06698359549045563,-0.004891239106655121,0.08396229147911072,-0.1031486988067627,-0.22134606540203094,CompareToThreshold
synth095,-0.039954282343387604,1.3280574083328247,0.014682968147099018,-0.11643834412097931,0.07011289149522781,-0.16691090166568756,-0.3644207715988159,-0.017976656556129456,-0.2587758004665375,0.04996277391910553,0.052608150988817215,0.16203966736793518,-0.05863757058978081,0.03219401091337204,-0.025059640407562256,-0.05473518371582031,LossCounting
synth096,0.06975878030061722,2.9998011589050293,0.13585326075553894,0.0859341099858284,-0.10961806029081345,-0.09768185019493103,-0.03202918916940689,-0.07002807408571243,0.9904544949531555,0.13542376458644867,-0.06263823062181473,-0.058181557804346085,0.0770549327135086,0.1375674307346344,-0.19340385496616364,-0.027283502742648125,QLearning
synth097,0.001971780089661479,-0.7213249206542969,0.08984261751174927,-0.04268581420183182,-0.09950270503759384,0.03374377638101578,0.166356161236763,-0.007813137955963612,-0.07818897813558578,-0.2146320641040802,0.01872936449944973,0.14064083993434906,-0.040785036981105804,0.028159352019429207,0.043440401554107666,-0.15409767627716064,CompareToThreshold
synth098,0.08306478708982468,1.8769973516464233,0.027010342106223106,-0.026992525905370712,0.12613078951835632,-0.04792134463787079,-0.4184143543243408,-0.0556490533053875,-0.9517083168029785,-0.09115678071975708,-0.03877987712621689,0.06575388461351395,0.09882423281669617,0.014685455709695816,-0.04858676344156265,0.01376546360552311,LossCounting
synth099,-0.0649833157658577,-0.39755216240882874,-0.3458188772201538,0.0465754009783268,-0.22926214337348938,-0.09038710594177246,-0.3069658875465393,-0.04696331173181534,-1.0227818489074707,0.04553338140249252,-0.0706278532743454,0.1512548178434372,0.05071041360497475,0.01629781350493431,-0.10483033955097198,0.043780308216810226,QLearning
synth100,0.05491931363940239,-0.33200398087501526,0.12422461062669754,-0.18683719635009766,0.008690868504345417,-0.16456037759780884,1.5401480197906494,0.17145609855651855,1.2306263446807861,0.04838151857256889,0.08634283393621445,-0.04829494282603264,0.04758478328585625,-0.011656626127660275,-0.1401342749595642,-0.060903605073690414,CompareToThreshold
synth101,-0.01646931655704975,-0.6218844056129456,0.07099651545286179,0.07289610058069229,0.08550034463405609,-0.046789973974227905,-0.7136913537979126,-0.05561644956469536,1.3503756523132324,-0.0006415048846974969,0.0784146636724472,-0.013132267631590366,0.0035516959615051746,0.07779295742511749,0.038128312677145004,-0.07627778500318527,LossCounting
synth102,-0.08103469759225845,-1.7165203094482422,0.0577826164662838,-0.06844452023506165,0.06542950123548508,-0.05808386951684952,0.0304962620139122,-0.1005006954073906,-1.2107234001159668,-0.09455548226833344,0.23374418914318085,0.11716794967651367,-0.003051320556551218,-0.04343315586447716,0.11749570816755295,0.08682632446289062,QLearning
synth103,0.1613800823688507,0.5961347818374634,0.03010587766766548,0.05939222499728203,0.06127811223268509,-0.22525642812252045,0.9045913219451904,0.03041861765086651,-0.26604244112968445,-0.21720317006111145,0.03431176394224167,-0.12510237097740173,-0.16837243735790253,-0.039370693266391754,0.20873795449733734,-0.05742406100034714,CompareToThreshold
synth104,-0.009920644573867321,1.7753604650497437,-0.012590618804097176,-0.011854799464344978,0.08046973496675491,-0.10322753340005875,-0.601915717124939,-0.104120172560215,-0.5695510506629944,0.04287088289856911,0.00030835121287964284,-0.0020404825918376446,0.028290648013353348,-0.05183127149939537,-0.07549742609262466,0.04556044936180115,LossCounting
synth105,0.1047292947769165,-0.3263668715953827,0.07726818323135376,0.05049427971243858,-0.047880854457616806,0.03899595886468887,0.4280148148536682,-0.0896594300866127,-1.2368255853652954,-0.14302758872509003,0.2663731873035431,0.015427232719957829,0.16457334160804749,-0.07892077416181564,-0.13368664681911469,-0.1293380707502365,QLearning
synth106,-0.06316692382097244,0.020676102489233017,-0.11176688969135284,0.18809160590171814,-0.010286354459822178,0.3143783509731293,0.6809114813804626,-0.20173759758472443,0.9782742261886597,-0.2484467476606369,-0.09323790669441223,0.04565049335360527,-0.11586356908082962,0.02167363651096821,0.1105576679110527,0.2047109454870224,CompareToThreshold
synth107,-0.024971436709165573,1.6368868350982666,-0.1885382980108261,-0.02525988407433033,-0.051498886197805405,0.09109411388635635,-0.23207707703113556,-0.16165511310100555,-0.46206605434417725,0.2519412338733673,-0.04982417821884155,0.3228929042816162,-0.016980258747935295,-0.06564917415380478,-0.07230094820261002,0.05601777508854866,LossCounting
synth108,-0.02809191681444645,-0.27310529351234436,-0.04767705872654915,0.09028912335634232,0.011934861540794373,0.17145608365535736,0.03652263060212135,0.18773968517780304,-0.17030715942382812,-0.11228176206350327,0.013491218909621239,0.03979801386594772,0.040162473917007446,0.06498856842517853,0.02163579873740673,0.2215752750635147,QLearning
synth109,-0.20755040645599365,0.8439890146255493,-0.07776594907045364,0.0058331480249762535,0.07415398210287094,0.16883419454097748,1.0151910781860352,-0.01575617864727974,0.5628081560134888,-0.13386943936347961,0.05306331440806389,-0.017353717237710953,0.13848146796226501,0.06305232644081116,-0.018302034586668015,-0.2107551395893097,CompareToThreshold
synth110,0.037720564752817154,0.49035075306892395,0.010885342955589294,-0.011668536812067032,0.1251506805419922,-0.09808600693941116,-0.6178787350654602,0.03149726614356041,0.37489089369773865,-0.0286802239716053,-0.012510369531810284,-0.038179174065589905,-0.01818856969475746,-0.047193385660648346,-0.05194667726755142,0.008244050666689873,LossCounting
synth111,-0.11201351881027222,-1.635825514793396,0.1746758669614792,-0.10258683562278748,0.11472129076719284,-0.13445496559143066,-0.3919323980808258,-0.10333090275526047,-0.943024218082428,0.11538246273994446,0.21183574199676514,0.03899693116545677,0.043851133435964584,-0.040318842977285385,0.08167505264282227,-0.06896071881055832,QLearning
synth112,-0.19412794709205627,-0.12251822650432587,-0.0469844676554203,-0.08505363017320633,0.13561251759529114,-0.1357688009738922,1.411133885383606,-0.16515332460403442,1.569947600364685,-0.018737949430942535,-0.04504714906215668,0.09045562893152237,0.04979492351412773,-0.02929498627781868,-0.08757562935352325,0.06003645062446594,CompareToThreshold
synth113,0.03748897463083267,-0.8017275333404541,0.018440643325448036,0.12498702108860016,0.21818962693214417,-0.08872321248054504,-0.7491768002510071,0.032807622104883194,1.4915646314620972,-0.009762817062437534,-0.0005077480454929173,0.05342159792780876,-0.0020574626978486776,0.09843190759420395,0.0619640052318573,-0.030715415254235268,LossCounting
synth114,0.026203712448477745,-0.8177197575569153,0.011210211552679539,-0.008995926938951015,0.21199750900268555,-0.008198733441531658,-0.04826873168349266,0.15698228776454926,-1.1431903839111328,0.0850839912891388,0.010324378497898579,0.10780012607574463,-0.014315630309283733,-0.04333503171801567,0.02479948289692402,0.006841475609689951,QLearning
synth115,-0.050023406744003296,0.7422964572906494,-0.12224249541759491,0.006873116362839937,-0.08550597727298737,0.06318394094705582,1.0383989810943604,0.02172873727977276,0.5370703339576721,-0.053296107798814774,-0.046272918581962585,0.07675431668758392,-0.05711376294493675,0.11011436581611633,-0.0731247290968895,-0.10782984644174576,CompareToThreshold
synth116,-0.023418908938765526,1.7633955478668213,-0.015814395621418953,-0.008015025407075882,0.06259049475193024,0.013503586873412132,-0.3809080123901367,-0.07289660722017288,-0.7098140120506287,-0.00012390960182528943,-0.03955051675438881,0.05558542162179947,0.02293742634356022,-0.02246895246207714,-0.07857879996299744,-0.019238699227571487,LossCounting
synth117,0.0483953095972538,-1.7701157331466675,0.2839338481426239,0.17133325338363647,0.15874168276786804,0.05768333002924919,0.16085979342460632,0.06425975263118744,-0.918544590473175,0.18061886727809906,0.3252813518047333,0.10901542752981186,0.06529419124126434,-0.001618406269699335,0.29885801672935486,-0.10310015082359314,QLearning
synth118,-0.28882789611816406,-1.0462759733200073,0.32788440585136414,-0.33508941531181335,-0.2510822117328644,0.3665732741355896,1.5297006368637085,0.3655557632446289,-0.9451807737350464,0.6576520204544067,0.2565169334411621,0.35477426648139954,-0.13337565958499908,-0.07109955698251724,0.42745479941368103,-0.23152652382850647,CompareToThreshold
synth119,-0.005823091138154268,1.7104285955429077,-0.050758134573698044,-0.0018248636042699218,0.03956976160407066,-0.012478150427341461,-0.307663232088089,0.052566464990377426,-0.7556300163269043,0.044375885277986526,0.019969075918197632,-0.10874044895172119,-0.0038856156170368195,-0.013192483223974705,-0.06386029720306396,-0.0006492076208814979,LossCounting
synth120,-0.053088463842868805,-0.057326123118400574,-0.08562935143709183,0.021261828020215034,-0.16244417428970337,-0.04158373177051544,-0.6333897113800049,-0.05957033857703209,-0.708763837814331,0.04028614982962608,0.02915223501622677,0.04059797152876854,0.07191199064254761,0.09597418457269669,-0.10264065861701965,0.09898578375577927,QLearning
synth121,0.19890470802783966,0.33150193095207214,0.10029062628746033,0.04331696033477783,0.015250369906425476,-0.01564079336822033,0.7539294958114624,-0.10720482468605042,-0.9852486252784729,-0.08574435859918594,-0.19581447541713715,-0.11747917532920837,0.28600651025772095,-0.03732363134622574,-0.11296289414167404,0.06647083163261414,CompareToThreshold
synth122,-0.04993424564599991,-0.5433037877082825,0.11291182786226273,-0.03184268996119499,0.008603799156844616,-0.10479484498500824,-0.44534429907798767,-0.10485652089118958,1.4969757795333862,-0.017634524032473564,0.04329349473118782,-0.06571792811155319,-0.004072756040841341,0.04915758594870567,0.000565961527172476,-0.07871925085783005,LossCounting
synth123,-0.019951660186052322,-0.23046505451202393,0.07584398239850998,0.05036165192723274,0.035666946321725845,-0.07014098763465881,-0.9399356245994568,-0.14586839079856873,-0.20096339285373688,0.17384257912635803,0.017039205878973007,-0.018209930509328842,0.04977438226342201,0.021805355325341225,-0.1947062462568283,-0.04224618524312973,QLearning
synth124,0.0323139950633049,-1.067440390586853,0.12192977219820023,0.011233152821660042,0.06357904523611069,0.07386668771505356,1.0177857875823975,-0.006155326496809721,-0.04357660934329033,0.020359741523861885,-0.07741119712591171,0.06382669508457184,0.12370697408914566,0.06685540080070496,-0.04096526280045509,-0.2726438045501709,CompareToThreshold
synth125,0.09283795952796936,1.4910824298858643,-0.05230224132537842,-0.03755322843790054,0.16646656394004822,-0.08494864404201508,-0.5546208620071411,-0.12230110913515091,-0.36473608016967773,0.10144057124853134,0.04890937730669975,-0.0024861402343958616,0.07458674907684326,0.008509347215294838,-0.02567112073302269,0.07112260162830353,LossCounting
synth126,0.04670191928744316,-1.0888769626617432,-0.07663700729608536,-0.009739845059812069,-0.009322266094386578,0.064519964158535,-0.13682503998279572,0.06149093061685562,-0.840864360332489,-0.03659778833389282,0.12185750156641006,-0.037479568272829056,-0.005637179594486952,-0.05595344305038452,0.05928342044353485,0.03322943300008774,QLearning
synth127,-0.01513551827520132,-0.5609174966812134,0.03444019705057144,-0.08847597986459732,0.0142273074015975,0.08812419325113297,0.25118428468704224,0.07094089686870575,-0.1955394744873047,-0.10552357882261276,-0.058692630380392075,0.14622195065021515,-0.0335092730820179,0.11361666768789291,0.017421230673789978,-0.22226588428020477,CompareToThreshold
synth128,0.039794955402612686,-0.18590910732746124,0.08946795016527176,-0.12618987262248993,0.0936838909983635,-0.20430412888526917,-0.24469532072544098,0.030506344512104988,1.2485411167144775,0.020672686398029327,0.0399743914604187,0.15373113751411438,-0.05772475525736809,0.10913026332855225,0.14960576593875885,-0.261330783367157,LossCounting
synth129,-0.03538678213953972,-0.31684502959251404,0.021401654928922653,-0.057709671556949615,0.07293202728033066,-0.06999748945236206,-1.045058012008667,-0.01560994703322649,-0.10110995918512344,0.046313587576150894,-0.05909392610192299,-0.025498507544398308,-0.020726114511489868,-0.00972878560423851,-0.10784593969583511,0.03040357306599617,QLearning
synth130,0.002758869668468833,0.5016744136810303,-0.043390266597270966,0.17171843349933624,-0.009751872159540653,0.13639669120311737,1.0834453105926514,0.08550596982240677,0.4178743362426758,-0.032890573143959045,-0.019687307998538017,-0.024982495233416557,0.10538513958454132,0.08582625538110733,0.019067542627453804,0.015076402574777603,CompareToThreshold
synth131,0.03237520903348923,-0.008673137053847313,0.18624337017536163,-0.03401612117886543,0.10424133390188217,-0.0394432432949543,-0.2414335459470749,-0.04223928600549698,1.3070616722106934,-0.04259355366230011,-0.057314999401569366,-0.005261239130049944,-0.02637420780956745,0.04456828907132149,-0.0020917020738124847,-0.17378659546375275,LossCounting
synth132,0.08171707391738892,-0.8084328174591064,0.026311269029974937,0.06647102534770966,-0.07143816351890564,0.11717576533555984,-0.4604770243167877,0.1556881070137024,-0.4036952257156372,-0.02005321905016899,-0.1923939734697342,0.08541584759950638,0.04733714461326599,0.07114852964878082,0.026431605219841003,-0.09656745940446854,QLearning
synth133,-0.22703048586845398,-0.466253399848938,0.12033268064260483,-0.2684635519981384,0.032110534608364105,-0.18694688379764557,1.565178632736206,0.21358565986156464,-0.9393689036369324,0.37166550755500793,0.2517402470111847,0.47006598114967346,-0.17912812530994415,-0.12850059568881989,0.41118839383125305,0.0666387677192688,CompareToThreshold
synth134,-0.006739986594766378,-0.19328376650810242,0.013011583127081394,0.03292972967028618,0.08864212781190872,-0.03507284075021744,-0.6458613872528076,-0.06987491995096207,1.100098967552185,-0.019099099561572075,-0.05058228224515915,-0.08673087507486343,-0.08083545416593552,-0.04508255422115326,-0.04024992138147354,-0.01476229541003704,LossCounting
synth135,0.025479884818196297,-0.3863920271396637,0.08447889983654022,0.03070305660367012,0.01187309343367815,0.005482934415340424,-0.813796877861023,-0.24905189871788025,-0.317228764295578,-0.07493865489959717,0.07277613133192062,-0.0894504189491272,0.11556464433670044,0.02607196383178234,-0.14164458215236664,0.11765807867050171,QLearning
synth136,0.09583856165409088,0.25067242980003357,0.004281688015908003,0.10855495184659958,-0.09068341553211212,-0.04901302605867386,0.5068373680114746,-0.0107648354023695,-0.7321024537086487,-0.1000412255525589,-0.17693941295146942,0.1915038526058197,0.36176395416259766,0.08250288665294647,-0.18593266606330872,-0.05882639437913895,CompareToThreshold
synth137,-0.06347479671239853,1.983402132987976,-0.012118211016058922,0.0670289546251297,0.04150286689400673,0.048586633056402206,-0.5184240937232971,-0.02023463509976864,-0.7354255318641663,0.07330095022916794,0.006213536951690912,0.011227980256080627,0.08086500316858292,-0.01906534470617771,-0.17428550124168396,-0.01626759208738804,LossCounting
synth138,-0.01696636527776718,-0.36560237407684326,-0.14566320180892944,0.12624205648899078,-0.08143193274736404,-0.06503479182720184,-0.6258229613304138,-0.0709904134273529,-0.7376970648765564,0.03789007291197777,-0.0035329058300703764,0.1612696796655655,-0.09672567248344421,0.06329900771379471,0.008265964686870575,-0.07831915467977524,QLearning
synth139,0.07029750198125839,0.4205992817878723,-0.13505719602108002,-0.05295352265238762,-0.01175252627581358,-0.022200223058462143,0.5901497006416321,-0.2769458293914795,-0.9657335877418518,-0.19904254376888275,-0.044850703328847885,0.08900796622037888,-0.2009774148464203,0.030771341174840927,-0.11624547839164734,-0.22811567783355713,CompareToThreshold
synth140,0.11102520674467087,-0.019042814150452614,0.0760088786482811,-0.16986311972141266,0.01791514828801155,-0.1206410676240921,-0.15766240656375885,0.06424324959516525,-0.07319165021181107,0.1860523670911789,0.09328507632017136,0.33850571513175964,-0.1202046126127243,-0.048370666801929474,0.12591667473316193,-0.08795663714408875,LossCounting
synth141,-0.14709271490573883,-0.6171647310256958,-0.014164412394165993,-0.015071365982294083,-0.11320603638887405,0.09137499332427979,-0.1722886562347412,-0.05756768584251404,-0.6130649447441101,0.10572774708271027,0.15195319056510925,0.04708237200975418,0.06097099557518959,-0.023035841062664986,-0.037342824041843414,-0.17052437365055084,QLearning
synth142,-0.2359268069267273,0.6389040350914001,-0.14777882397174835,-0.09273765236139297,0.1164989098906517,0.11267325282096863,0.8369503021240234,-0.11507412046194077,0.7850320339202881,-0.09391384571790695,0.1532019078731537,0.220897376537323,-0.0011380008654668927,0.11023121327161789,-0.039927467703819275,-0.1591680347919464,CompareToThreshold
synth143,0.010816209949553013,-0.368019163608551,-0.059057608246803284,-0.08051417768001556,0.024265775457024574,-0.01639370620250702,-0.549340546131134,-0.11343379318714142,1.3056105375289917,-0.035591185092926025,-0.019170746207237244,-0.11906471848487854,-0.01078252773731947,-0.08126609772443771,-0.06735610961914062,0.032247185707092285,LossCounting
synth144,-0.24389468133449554,-1.0456722974777222,0.05172210931777954,0.0028644613921642303,0.03120991960167885,-0.038113489747047424,-0.3365997076034546,0.27139943838119507,-0.7707140445709229,0.11761161684989929,-0.09597727656364441,-0.006482911761850119,0.00967956893146038,0.0065056756138801575,0.007510385010391474,-0.06909079104661942,QLearning
synth145,0.07882991433143616,0.2020672708749771,-0.05735792592167854,0.19927304983139038,0.06531861424446106,0.08462311327457428,0.4526944160461426,0.06045966222882271,-0.906829297542572,0.03450977802276611,-0.2977110743522644,0.07982148975133896,0.36637574434280396,-0.012319456785917282,-0.056896012276411057,0.13075438141822815,CompareToThreshold
synth146,-0.1716196984052658,1.8919614553451538,-0.0005410388694144785,0.08245695382356644,0.038982879370450974,0.027940450236201286,-0.45427316427230835,-0.09556679427623749,-0.7915824055671692,0.05022361874580383,-0.007631524931639433,-0.11703243106603622,0.05011456832289696,-0.06251504272222519,-0.06365641206502914,-0.04732633754611015,LossCounting
synth147,0.05276954919099808,-0.13300779461860657,-0.09151456505060196,0.009721770882606506,-0.13683398067951202,-0.05634795129299164,-0.07117442041635513,-0.15459878742694855,-1.5301710367202759,0.1144024133682251,-0.2759283781051636,0.17889440059661865,0.025498952716588974,0.012935574166476727,-0.13004645705223083,0.021730750799179077,QLearning
synth148,0.19509954750537872,-1.186616063117981,0.15238218009471893,0.1478244662284851,-0.021452493965625763,0.02343202568590641,0.9509105086326599,-0.009083807468414307,0.01829720102250576,-0.04847734794020653,0.014019627124071121,0.14012432098388672,0.14999723434448242,0.04109625145792961,0.014243444427847862,-0.12205483019351959,CompareToThreshold
synth149,0.16047640144824982,1.4859778881072998,0.04078501835465431,-0.020995644852519035,0.06849036365747452,-0.17952989041805267,-0.07822101563215256,-0.0016578793292865157,-0.9437464475631714,-0.27881813049316406,0.0999380350112915,-0.06891442090272903,-0.31656914949417114,0.17738927900791168,0.10923141986131668,0.09445655345916748,LossCounting
synth150,0.1418694108724594,-0.31332606077194214,-0.029171714559197426,0.07480870932340622,-0.05081501975655556,-0.0799563080072403,-0.8055427670478821,0.06574459373950958,-0.3528294861316681,-0.039329126477241516,-0.04805012047290802,0.13466250896453857,-0.007940106093883514,0.1304500550031662,-0.03190907835960388,0.11260686069726944,QLearning
synth151,-0.17525674402713776,0.7237849831581116,-0.09971349686384201,-0.004254791419953108,0.11405076086521149,0.17481286823749542,0.9877941012382507,-0.02354350872337818,0.6176793575286865,-0.11729037016630173,0.04499252513051033,-0.02208659052848816,0.20344944298267365,-0.024664556607604027,0.045539066195487976,0.006392980460077524,CompareToThreshold
synth152,-0.04842791333794594,0.025591876357793808,0.08212742954492569,-0.06741747260093689,-0.07615461200475693,0.11559594422578812,-0.136763796210289,0.018295597285032272,-0.5269548296928406,-0.04986022040247917,0.08577380329370499,-0.05467000976204872,-0.11413898319005966,-0.008726721629500389,0.09923627972602844,-0.13783885538578033,LossCounting
synth153,-0.11396440863609314,-0.5803647637367249,-0.11806295067071915,0.048010844737291336,-0.12321699410676956,0.002006558468565345,-0.10702034085988998,-0.06860163807868958,-0.8720436692237854,0.10009325295686722,-0.08866710215806961,0.20476867258548737,0.18918828666210175,0.0036984793841838837,-0.07070140540599823,0.08213532716035843,QLearning
synth154,-0.05356866493821144,-0.9132146835327148,-0.28150424361228943,0.15078815817832947,-0.09136208146810532,0.022326910868287086,1.0709540843963623,0.10553289949893951,0.35852986574172974,-0.07589428126811981,0.0013548145070672035,0.007594843860715628,0.23224703967571259,0.1338973045349121,0.0643446296453476,0.10255734622478485,CompareToThreshold
synth155,0.011833837255835533,-0.19638514518737793,0.052817344665527344,0.024170776829123497,0.13396725058555603,-0.0591590479016304,-0.33926987648010254,0.08746133744716644,1.2461391687393188,0.09883571416139603,0.04807154834270477,0.055204905569553375,0.09313976019620895,0.020380772650241852,0.07089565694332123,-0.23652353882789612,LossCounting
synth156,-0.22918576002120972,-0.575264573097229,-0.10460657626390457,0.04900510236620903,0.1509435772895813,-0.05018947646021843,-0.7687516808509827,0.05342317745089531,-0.16512395441532135,0.09360375255346298,-0.014671668410301208,0.05118050426244736,0.02645844966173172,0.10259033739566803,-0.07722803950309753,-0.09376094490289688,QLearning
synth157,-0.07316199690103531,-0.2953381836414337,0.035505909472703934,0.0766213983297348,-0.0676918774843216,0.11139331012964249,0.6771561503410339,0.058524683117866516,-0.8266074657440186,-0.16772626340389252,0.0904928669333458,-0.041829731315374374,0.1528724581003189,0.05202677473425865,-0.09805455058813095,0.05310390144586563,CompareToThreshold
synth158,0.10726778209209442,1.8850388526916504,0.08333547413349152,-0.04487282782793045,0.09807215631008148,-0.084031842648983,-0.25577685236930847,0.10778570920228958,-0.9831539392471313,-0.056648097932338715,0.010846728459000587,0.03770541772246361,0.049377378076314926,-0.02064758539199829,-0.13686826825141907,0.0019131185254082084,LossCounting
synth159,0.18404841423034668,-0.5038747787475586,-0.035333968698978424,0.005766185466200113,-0.07103551924228668,0.030156085267663002,-0.7433596253395081,0.06215280294418335,-0.4133763015270233,-0.031062563881278038,-0.17436976730823517,0.054958004504442215,0.038518454879522324,0.047010086476802826,-0.016308851540088654,-0.07988830655813217,QLearning
synth160,-0.03162086755037308,0.33496713638305664,0.03679576516151428,0.16316232085227966,-0.06482924520969391,0.030070936307311058,1.1886250972747803,-0.05263347923755646,0.305758535861969,-0.012044122442603111,-0.024311644956469536,-0.04540908336639404,0.07443183660507202,0.11594099551439285,0.06967712193727493,-0.17517735064029694,CompareToThreshold
synth161,-0.14896023273468018,-0.9041351675987244,-0.2877158224582672,0.0994386076927185,0.048306796699762344,0.2568833529949188,-0.26511725783348083,0.028076522052288055,1.763783574104309,-0.02024022489786148,-0.04305321350693703,0.14997759461402893,-0.05106430873274803,0.13708217442035675,-0.08318892121315002,-0.1644454151391983,LossCounting
synth162,-0.023793917149305344,-0.4105949401855469,0.06870610266923904,0.0191467497497797,0.010852772742509842,-0.03936023637652397,-0.9016770124435425,-0.031061585992574692,-0.15343204140663147,0.07447025924921036,0.0017693203408271074,-0.1018928810954094,0.07325728237628937,-0.04514983668923378,-0.18114441633224487,0.11116360872983932,QLearning
synth163,-0.17592677474021912,-0.39565595984458923,-0.09026192128658295,0.09732598066329956,-0.13548913598060608,0.01328639592975378,0.28027108311653137,-0.12394415587186813,0.6134256720542908,0.18709783256053925,-0.1023251861333847,0.14120233058929443,-0.017961638048291206,0.0870790183544159,-0.06757868826389313,-0.14598457515239716,CompareToThreshold
synth164,0.06653829663991928,-0.7161397933959961,0.0409112386405468,0.05799119547009468,0.07331643998622894,-0.06354308873414993,-0.7338205575942993,-0.03881436958909035,1.519146203994751,-0.051355354487895966,-0.041021496057510376,-0.0825362429022789,-0.12093950062990189,0.000255509396083653,-0.0019123414531350136,-0.039253268390893936,LossCounting
synth165,-0.04505261778831482,-0.45708388090133667,-0.262565553188324,0.02622351050376892,-0.2673196792602539,0.0635974332690239,-0.6108443140983582,0.03741111233830452,-0.468647837638855,-0.029157543554902077,-0.18813268840312958,0.09249179810285568,-0.03426366671919823,0.09603545814752579,-0.05451346933841705,-0.04629795625805855,QLearning
synth166,-0.02254864014685154,0.9314778447151184,0.0612039715051651,0.21116049587726593,0.018337540328502655,0.06457848846912384,1.1993826627731323,-0.1561993658542633,0.2825624644756317,-0.10297137498855591,-0.0377328060567379,-0.05206168442964554,0.046150173991918564,0.016274919733405113,0.028510477393865585,-0.05614945665001869,CompareToThreshold
synth167,0.12086927890777588,1.9124951362609863,0.04473899304866791,0.02127828821539879,0.12295971810817719,-0.12550616264343262,-0.5465872883796692,-0.08063006401062012,-0.7094281911849976,0.11467009782791138,0.06813867390155792,0.10143967717885971,0.06752007454633713,-0.009202667511999607,-0.07958859205245972,-0.01188351958990097,LossCounting
synth168,-0.11724188178777695,-1.2656177282333374,0.08136489242315292,-0.07185380160808563,-0.03263188153505325,-0.07345867156982422,-0.3825828433036804,0.03511209040880203,-0.8573504090309143,0.018517524003982544,0.013494047336280346,-0.029040448367595673,-0.03887154534459114,-0.060272976756095886,0.04015880450606346,0.17654171586036682,QLearning
synth169,0.08770593255758286,0.2961549758911133,0.13085602223873138,0.1402253806591034,0.02837132103741169,0.26933062076568604,0.6578302979469299,0.13426001369953156,0.07460270076990128,0.0075919134542346,-0.05448885262012482,-0.038614220917224884,0.14465098083019257,0.017716046422719955,-0.1232810989022255,0.14828141033649445,CompareToThreshold
synth170,-0.03656773269176483,0.7748030424118042,-0.06527810543775558,-0.06053415313363075,-0.04460862651467323,0.06650710105895996,-0.5375325083732605,0.005315593909472227,0.36410802602767944,0.0039666942320764065,0.02530653588473797,-0.12005073577165604,-0.03495020419359207,-0.116897352039814,-0.0031522680073976517,0.17234817147254944,LossCounting
synth171,0.096631720662117,-1.7188955545425415,0.22560937702655792,-0.08438629657030106,0.469061940908432,-0.10350821167230606,0.30842292308807373,-0.12131792306900024,-1.2064520120620728,0.024811217561364174,0.1610509157180786,0.07084488123655319,-0.052916720509529114,0.0006529999664053321,0.17857317626476288,-0.0914187878370285,QLearning
synth172,0.06330684572458267,-0.38615694642066956,-0.09907672554254532,0.03253737464547157,-0.01054297760128975,0.05510348454117775,1.0155869722366333,-0.008502982556819916,0.6790940761566162,0.004203641787171364,-0.06943877041339874,0.02514246106147766,-0.12753140926361084,0.005797205958515406,0.19688190519809723,0.1523340344429016,CompareToThreshold
synth173,-0.05309612676501274,1.3155462741851807,-0.2480156272649765,-0.07172850519418716,-0.07429248839616776,-0.1303136944770813,-0.3981909453868866,-0.002779089380055666,-0.1375313401222229,-0.0024383224081248045,-0.0930124893784523,0.017003919929265976,-0.17552503943443298,0.1295562982559204,-0.015660956501960754,-0.022625375539064407,LossCounting
synth174,-0.26397237181663513,-0.6024168133735657,-0.08593107014894485,0.16501514613628387,-0.049506787210702896,0.06446319073438644,-0.16685593128204346,0.09815194457769394,-0.3545131981372833,0.25589555501937866,-0.09856168925762177,0.16903217136859894,0.18936191499233246,0.11653387546539307,-0.04596336930990219,0.0024285304825752974,QLearning
synth175,-0.11554200947284698,0.4297460615634918,0.16817249357700348,-0.02304115705192089,-0.030749956145882607,0.10802092403173447,0.6263773441314697,0.030353613197803497,-0.3067357838153839,-0.24063299596309662,-0.02363964542746544,-0.10545442253351212,0.4397496283054352,-0.017979227006435394,-0.17354416847229004,0.12973079085350037,CompareToThreshold
synth176,-0.051854245364665985,-0.8526120781898499,0.18381863832473755,-0.29829707741737366,-0.1594482809305191,-0.1435834765434265,0.16354751586914062,0.07114041596651077,-0.8430496454238892,0.7014787197113037,0.33612361550331116,0.044775526970624924,-0.006705943960696459,-0.22021694481372833,0.22727583348751068,-0.10269086062908173,LossCounting
synth177,0.0046552070416510105,-0.07255662977695465,0.026277249678969383,0.06024546176195145,0.04004579782485962,-0.05386391282081604,-0.8351836800575256,-0.08279218524694443,-0.45381394028663635,-0.044847406446933746,-0.033293504267930984,0.04978714510798454,0.010676722973585129,0.055631838738918304,-0.05706295371055603,0.053116731345653534,QLearning
synth178,0.15158285200595856,0.8724770545959473,-0.11426367610692978,0.02079138718545437,0.0018413461511954665,0.021685980260372162,0.637294590473175,-0.02911573089659214,0.39927414059638977,-0.09922527521848679,-0.09307801723480225,0.0024287481792271137,0.20273536443710327,-0.006041056476533413,0.07040096074342728,0.1486654132604599,CompareToThreshold
synth179,0.1348537802696228,-0.2594972550868988,0.045359764248132706,-0.011053590103983879,0.12318861484527588,-0.1552308350801468,-0.5502947568893433,0.01816236786544323,1.2588156461715698,0.022328782826662064,0.044270310550928116,0.07506605237722397,-0.24223510921001434,0.07401184737682343,0.10844861716032028,0.11406619846820831,LossCounting
synth180,0.07551006972789764,-1.1113077402114868,-0.09506988525390625,-0.0030645299702882767,-0.01852302812039852,0.004327109083533287,-0.0467696487903595,0.06530250608921051,-1.0554887056350708,0.05854741856455803,0.024656658992171288,0.11008178442716599,-0.007986633107066154,-0.06340015679597855,0.07242517918348312,0.04717323184013367,QLearning
synth181,0.14925692975521088,-0.4922916293144226,0.1658245474100113,-0.2137438952922821,-0.08938559889793396,0.6718959212303162,1.4926533699035645,0.3215084969997406,-1.3410429954528809,0.6431796550750732,0.3059980869293213,0.5368585586547852,-0.12519791722297668,-0.1744687855243683,0.4620758891105652,-0.14178858697414398,CompareToThreshold
synth182,0.02401019260287285,0.2509487271308899,0.1376757025718689,-0.13833950459957123,-0.10096746683120728,0.20665866136550903,-0.3006702661514282,-0.07199525088071823,0.5266675353050232,0.010622600093483925,0.07944535464048386,0.1846195012331009,0.06231917068362236,-0.1580917090177536,0.04857291281223297,0.3166947662830353,LossCounting
synth183,0.11776817589998245,-0.13217011094093323,-0.218782439827919,0.029287997633218765,-0.12712863087654114,-0.12669126689434052,-0.2010650336742401,-0.21287928521633148,-1.38229501247406,0.0354304313659668,-0.16386182606220245,0.24378904700279236,-0.046001940965652466,-0.01958482153713703,-0.06192639842629433,0.07296466082334518,QLearning
synth184,0.16973665356636047,-0.48500269651412964,0.09200228005647659,-0.02237839065492153,-0.06670203804969788,0.1136796623468399,1.2307212352752686,-0.08425551652908325,0.2393544614315033,-0.10234402120113373,0.10189197212457657,0.16536451876163483,0.370254248380661,0.0074267336167395115,-0.06005267798900604,-0.2443937063217163,CompareToThreshold
synth185,-0.11762899160385132,0.3017524182796478,0.11512382328510284,-0.05819471552968025,-0.021817563101649284,-0.007757668383419514,-0.12467806786298752,0.0576067678630352,-0.45158177614212036,-0.0028470500838011503,0.04006177932024002,0.016247227787971497,-0.05918748304247856,-0.03600163012742996,-0.0006396528915502131,-0.17515461146831512,LossCounting
synth186,-0.1315249651670456,-0.800226092338562,-0.055395640432834625,0.04714670032262802,-0.10991973429918289,-0.05653425678610802,-0.24869169294834137,-0.016209302470088005,-0.8220947980880737,0.0895925834774971,-0.08069493621587753,0.0887758657336235,0.04850444942712784,-0.0036062379367649555,-0.004054542630910873,0.15437808632850647,QLearning
synth187,-0.037049777805805206,-0.011913283728063107,-0.1419936716556549,0.02779972553253174,-0.048115476965904236,0.05694204568862915,0.258114755153656,0.2120656669139862,0.08215739578008652,-0.07350108027458191,0.004897506907582283,0.06377638131380081,0.007292850874364376,0.0878981351852417,-0.056172069162130356,0.03056247904896736,CompareToThreshold
synth188,-0.05889841169118881,-0.624920666217804,-0.19180622696876526,0.292194128036499,0.196273073554039,0.10361198335886002,-0.559761106967926,0.057823460549116135,1.5186004638671875,-0.019823836162686348,-0.012184678576886654,0.14452339708805084,0.14785122871398926,0.1959817111492157,-0.003295851405709982,-0.16824577748775482,LossCounting
synth189,-0.23538175225257874,-0.18795570731163025,0.009389464743435383,0.10128355026245117,-0.005414582323282957,-0.01990911178290844,-0.5268059372901917,0.04824063181877136,-0.5502667427062988,0.094681516289711,-0.03215276449918747,0.07878272980451584,0.12334758788347244,0.10296551138162613,-0.05603274330496788,0.007486965041607618,QLearning
synth190,-0.09046805649995804,1.0349317789077759,-0.005866017192602158,0.02202538214623928,0.06937815994024277,0.09566617757081985,0.8317896723747253,-0.16219064593315125,0.5621213316917419,-0.14619317650794983,0.017509792000055313,-0.040421899408102036,0.022554980590939522,0.016996096819639206,0.061508648097515106,0.06165642291307449,CompareToThreshold
synth191,-0.023583069443702698,1.228192925453186,0.024998513981699944,-0.14365549385547638,-0.054001785814762115,-0.2705715000629425,-0.3979470431804657,0.08046775311231613,-0.001032671076245606,0.16429448127746582,-0.12834638357162476,-0.056758999824523926,-0.12126176059246063,-0.1114979237318039,0.10035393387079239,0.05161162465810776,LossCounting
synth192,0.1320897936820984,0.05691617354750633,-0.007257517427206039,0.053471315652132034,-0.1033795103430748,-0.10455328971147537,-0.9089013934135437,-0.06371912360191345,-0.3846403658390045,0.04468395188450813,-0.10207121819257736,0.030742229893803596,0.057169217616319656,0.1479845494031906,-0.03657350316643715,0.0625479519367218,QLearning
synth193,0.07267174869775772,-0.15930701792240143,0.168638214468956,-0.16584374010562897,-0.12214775383472443,0.02217758633196354,0.3024054169654846,0.04709833115339279,-0.2656310498714447,-0.20508231222629547,-0.0891827717423439,0.03961586207151413,-0.010272995568811893,0.1598200798034668,-0.05194234475493431,-0.1433289796113968,CompareToThreshold
synth194,0.12610606849193573,0.03791193291544914,0.014867639169096947,-0.035848841071128845,0.00924299843609333,-0.06230487674474716,-0.6464133858680725,-0.011039189994335175,0.9557149410247803,-0.0641418844461441,-0.020852958783507347,0.11894937604665756,-0.03767545148730278,-0.0076089585199952126,-0.01896018721163273,0.11545047163963318,LossCounting
synth195,-0.025589535012841225,-1.02104914188385,0.04414869472384453,0.11499093472957611,0.2575634717941284,-0.013746190816164017,0.27421101927757263,-0.10291729867458344,-0.6910163164138794,0.025084758177399635,-0.14718163013458252,0.17798113822937012,0.11677289009094238,0.10407641530036926,0.11399436742067337,0.09949266165494919,QLearning
synth196,-0.2107069492340088,-0.5877174139022827,0.1485467106103897,-0.12276051193475723,0.06157661974430084,-0.12909910082817078,1.5497703552246094,0.1291956603527069,1.2806456089019775,0.07786546647548676,0.07105441391468048,-0.2001187950372696,0.0556008517742157,-0.1288754940032959,-0.05006440356373787,-0.007836815901100636,CompareToThreshold
synth197,0.04030277580022812,-0.25492799282073975,-0.10417991131544113,-0.025079190731048584,-0.004149983171373606,-0.11258981376886368,-0.688103199005127,-0.039703838527202606,1.139548897743225,-0.00911735836416483,-0.045346155762672424,-0.086541086435318,-0.15904353559017181,0.005551869515329599,0.00932522863149643,0.02271701581776142,LossCounting
synth198,-0.004794074222445488,-0.34700512886047363,-0.11815480887889862,0.018538815900683403,-0.25826841592788696,0.15128882229328156,-0.5328203439712524,0.1113540455698967,-0.9553470611572266,0.017320934683084488,-0.253356397151947,-0.013444188982248306,-0.12037595361471176,0.03897714614868164,-0.14249823987483978,0.20104683935642242,QLearning
synth199,-0.018175795674324036,-0.35956886410713196,0.022512061521410942,0.021600885316729546,-0.10036573559045792,0.12319495528936386,0.48523807525634766,0.014182642102241516,0.24843907356262207,-0.004891172517091036,-0.13548456132411957,0.2815679907798767,-0.03305843099951744,0.05697166547179222,-0.13374276459217072,-0.002466975012794137,CompareToThreshold
